{"layers": "MyModel(\n  (network): Sequential(\n    (0): Linear(in_features=1, out_features=10, bias=True)\n    (1): Tanh()\n    (2): Linear(in_features=10, out_features=5, bias=True)\n    (3): Sigmoid()\n    (4): Linear(in_features=5, out_features=1, bias=True)\n  )\n)", "weights": {"network.0.weight": [[2.562295436859131], [-2.7959094047546387], [-2.9059345722198486], [2.447411060333252], [0.5014336705207825], [-2.2193374633789062], [-2.9938547611236572], [2.7317240238189697], [2.3935532569885254], [2.889209508895874]], "network.0.bias": [-0.07448098063468933, 0.03689606860280037, 0.021000033244490623, -0.12502840161323547, -0.38731637597084045, 0.054050248116254807, -0.06839080154895782, 0.11735600978136063, 0.03334541618824005, -0.047988731414079666], "network.2.weight": [[-0.9248980283737183, 1.6023521423339844, 1.4283459186553955, -1.0072177648544312, 0.16033759713172913, 1.417601466178894, 1.7888398170471191, -1.6255708932876587, -1.8248107433319092, -1.199333906173706], [1.2327241897583008, -1.63882315158844, -1.165132761001587, 0.8569896221160889, 0.025289302691817284, -1.3361142873764038, -1.9664753675460815, 1.902004361152649, 2.0674943923950195, 1.4410828351974487], [0.8701296448707581, -0.8304252624511719, -1.346092939376831, 0.8232795596122742, 0.18172849714756012, -0.9778634309768677, -1.4700106382369995, 1.38229238986969, 1.5908011198043823, 1.1429301500320435], [-0.8190019726753235, 1.367479681968689, 1.3453749418258667, -0.7039967179298401, 0.060187891125679016, 1.276134729385376, 1.3397165536880493, -1.4472755193710327, -1.7962580919265747, -1.1980750560760498], [1.0742453336715698, -1.1654633283615112, -0.9763702750205994, 0.9128195643424988, 0.3337583541870117, -0.850575864315033, -1.423424482345581, 1.2383042573928833, 1.094416618347168, 0.6943078637123108]], "network.2.bias": [0.07557423412799835, 0.11368055641651154, 0.09283110499382019, 0.040072593837976456, 0.17865239083766937], "network.4.weight": [[-0.2390109747648239, 0.39456984400749207, 0.44318369030952454, -0.5903018712997437, 0.3335782289505005]], "network.4.bias": [-0.17132341861724854]}}